digraph Tree {
node [shape=box, style="filled, rounded", color="black", fontname="helvetica"] ;
edge [fontname="helvetica"] ;
0 [label="sepal length (cm) <= 5.45\ngini = 0.67\nsamples = 95\nvalue = [46.0, 51.0, 53.0]\nclass = virginica", fillcolor="#fcfbfe"] ;
1 [label="petal length (cm) <= 2.35\ngini = 0.31\nsamples = 33\nvalue = [40.0, 8.0, 1.0]\nclass = setosa", fillcolor="#eb9d64"] ;
0 -> 1 [labeldistance=2.5, labelangle=45, headlabel="True"] ;
2 [label="gini = 0.0\nsamples = 28\nvalue = [40, 0, 0]\nclass = setosa", fillcolor="#e58139"] ;
1 -> 2 ;
3 [label="sepal length (cm) <= 4.95\ngini = 0.2\nsamples = 5\nvalue = [0, 8, 1]\nclass = versicolor", fillcolor="#52e891"] ;
1 -> 3 ;
4 [label="gini = 0.0\nsamples = 1\nvalue = [0, 0, 1]\nclass = virginica", fillcolor="#8139e5"] ;
3 -> 4 ;
5 [label="gini = 0.0\nsamples = 4\nvalue = [0, 8, 0]\nclass = versicolor", fillcolor="#39e581"] ;
3 -> 5 ;
6 [label="petal width (cm) <= 1.7\ngini = 0.55\nsamples = 62\nvalue = [6, 43, 52]\nclass = virginica", fillcolor="#ebe0fb"] ;
0 -> 6 [labeldistance=2.5, labelangle=-45, headlabel="False"] ;
7 [label="petal length (cm) <= 2.5\ngini = 0.31\nsamples = 32\nvalue = [6, 41, 3]\nclass = versicolor", fillcolor="#62ea9b"] ;
6 -> 7 ;
8 [label="gini = 0.0\nsamples = 4\nvalue = [6, 0, 0]\nclass = setosa", fillcolor="#e58139"] ;
7 -> 8 ;
9 [label="sepal length (cm) <= 7.05\ngini = 0.13\nsamples = 28\nvalue = [0, 41, 3]\nclass = versicolor", fillcolor="#47e78a"] ;
7 -> 9 ;
10 [label="petal length (cm) <= 5.35\ngini = 0.09\nsamples = 27\nvalue = [0, 41, 2]\nclass = versicolor", fillcolor="#43e687"] ;
9 -> 10 ;
11 [label="gini = 0.0\nsamples = 26\nvalue = [0, 41, 0]\nclass = versicolor", fillcolor="#39e581"] ;
10 -> 11 ;
12 [label="gini = 0.0\nsamples = 1\nvalue = [0, 0, 2]\nclass = virginica", fillcolor="#8139e5"] ;
10 -> 12 ;
13 [label="gini = 0.0\nsamples = 1\nvalue = [0, 0, 1]\nclass = virginica", fillcolor="#8139e5"] ;
9 -> 13 ;
14 [label="petal length (cm) <= 4.85\ngini = 0.08\nsamples = 30\nvalue = [0, 2, 49]\nclass = virginica", fillcolor="#8641e6"] ;
6 -> 14 ;
15 [label="sepal length (cm) <= 5.95\ngini = 0.44\nsamples = 3\nvalue = [0, 2, 4]\nclass = virginica", fillcolor="#c09cf2"] ;
14 -> 15 ;
16 [label="gini = 0.0\nsamples = 1\nvalue = [0, 2, 0]\nclass = versicolor", fillcolor="#39e581"] ;
15 -> 16 ;
17 [label="gini = 0.0\nsamples = 2\nvalue = [0, 0, 4]\nclass = virginica", fillcolor="#8139e5"] ;
15 -> 17 ;
18 [label="gini = 0.0\nsamples = 27\nvalue = [0, 0, 45]\nclass = virginica", fillcolor="#8139e5"] ;
14 -> 18 ;
}